[array([[ 2.3456211e-01, -2.5470868e-01, -6.0322386e-01, -7.8231496e-01,
        -4.2908317e-01, -6.5975982e-01, -4.5263621e-01, -2.8002262e-04,
        -3.3606145e-01, -3.4922102e-01, -1.2008846e-02, -3.2561520e-01,
        -2.3959136e-01, -4.7806618e-01,  1.6894560e-01,  3.2765862e-01,
         2.9903179e-01, -8.6284675e-02, -2.3561956e-01, -4.8879281e-01,
        -2.8113970e-01, -9.8704457e-01, -4.4565567e-01, -6.9224828e-01],
       [-4.0575124e-02, -1.9251765e-01, -2.1941309e-01, -3.0807391e-01,
        -1.7347324e-01, -1.8398114e-01,  2.2140241e-01,  1.9327885e-01,
        -3.6475658e-02,  1.4360267e-01, -1.2280449e-01, -3.9439422e-01,
        -4.7126162e-01, -3.7161869e-01, -3.1455693e-01, -6.8108872e-02,
         4.8653123e-01,  8.3929054e-02, -2.0601200e-01, -4.2466816e-02,
        -2.9620445e-01, -1.0247352e+00, -6.2682939e-01, -1.1959511e-01],
       [-3.5639673e-01, -3.8818255e-01, -6.8895435e-01, -9.6021712e-01,
        -6.8387789e-01, -4.4754025e-01,  2.4856323e-01, -1.9726679e-01,
        -1.9539154e-01,  2.5376278e-01, -8.2063764e-02, -1.0459292e-01,
        -8.6908743e-02, -3.4456757e-01,  6.3458093e-02,  1.5959695e-01,
         6.4647391e-02,  4.5040944e-01, -8.1748015e-01, -2.1963562e-01,
        -1.2305122e-01, -1.3008225e+00, -7.1678722e-01, -4.1189328e-01],
       [-1.7689973e+00,  1.6824088e-01, -1.1948330e+00, -7.7708250e-01,
         5.2560961e-01, -5.1925653e-01,  1.8997180e-01, -2.1529043e-01,
        -1.9411436e-01, -5.4759234e-02,  1.9610542e-01,  1.7828435e-02,
         3.6493972e-01, -9.3941373e-01, -1.5688242e-01,  8.4666473e-01,
         7.1335346e-01,  1.5354338e-01, -1.5065168e+00, -1.1805012e-01,
        -1.0952855e+00, -1.2838082e-01,  2.7475858e-01, -6.6289127e-01],
       [-7.0837569e-01, -1.1473807e+00, -1.9557339e+00, -1.5219512e+00,
        -1.9923856e+00, -1.7557237e+00,  3.8103020e-01, -7.8240246e-02,
        -4.4920832e-01,  2.0434362e-01,  3.8405448e-02,  1.4240766e-01,
        -1.9870902e+00,  8.6606288e-01,  1.3401957e+00, -1.2623399e+00,
        -2.6888838e-01, -1.1114290e+00, -4.2362127e-01, -1.6194562e+00,
        -1.0818491e+00, -1.9634793e+00, -1.6269268e+00, -1.2102644e+00]],
      dtype=float32), array([[-0.00588213,  0.14649823, -0.3513546 , -0.09710251,  0.32930905,
         0.08935739,  0.11408731,  0.04138149, -0.35812944, -0.08354774,
        -0.29220927, -0.02571798,  0.11530653,  0.2171044 , -0.33545548,
        -0.17982163, -0.21202816, -0.12430549,  0.2992633 ,  0.17066197,
        -0.24578159,  0.20349057,  0.07601427, -0.03463331],
       [-0.2546001 , -0.00292103,  0.13268223,  0.12819307, -0.01270876,
        -0.16984436, -0.2591093 , -0.11044541,  0.09600603, -0.36796522,
        -0.14845285,  0.11313769,  0.1630941 , -0.28134403,  0.10675852,
         0.12464206, -0.3770094 , -0.12102625,  0.26062882, -0.23671205,
         0.03210137,  0.09998776,  0.22763774, -0.3702111 ],
       [-0.08491181,  0.00629489, -0.18972138, -0.34807673,  0.05875377,
        -0.08686434, -0.10733572,  0.26370695,  0.06414645, -0.11987358,
         0.08347394,  0.20075394, -0.36619624, -0.3631066 , -0.06783883,
        -0.38254103,  0.15264946, -0.21949747, -0.04991648, -0.35990462,
        -0.19978842,  0.01561927, -0.11645965,  0.06060079],
       [ 0.06711821, -0.25088415, -0.18519358,  0.08358692,  0.06729276,
        -0.06571887, -0.06425873, -0.01766581, -0.3093943 , -0.14231586,
         0.14999044, -0.19023669, -0.00744944, -0.16499618,  0.23915085,
         0.11271241, -0.40718928, -0.07457317, -0.24213013,  0.03197531,
         0.07287709,  0.2911086 , -0.49656975,  0.19618258],
       [ 0.41955516, -0.0531732 ,  0.13100727, -0.15593763,  0.45744467,
        -0.1169932 , -0.07222833,  0.04606037,  0.436412  , -0.24152246,
         0.04463255, -0.21460576, -0.12686989, -0.07562615, -0.10597678,
        -0.13196778, -0.21767369,  0.12411149, -0.07466733,  0.25637385,
         0.16191535, -0.0087963 ,  0.19178759,  0.07015945],
       [-0.17340098,  0.4304356 ,  0.32552266,  0.18991168, -0.05123011,
         0.27653658, -0.15248556,  0.12135126,  0.01916232,  0.062521  ,
         0.12921992, -0.13495114, -0.42043966,  0.20306267, -0.16106834,
        -0.06164443, -0.32665965,  0.03643392, -0.22578764, -0.02634484,
        -0.15883307,  0.13819692, -0.08680414, -0.16446538]],
      dtype=float32), array([ 0.98831093,  0.5036755 ,  0.5293678 ,  0.57017845,  0.4219709 ,
        0.48568666,  1.        ,  1.        ,  1.        ,  1.        ,
        1.        ,  1.        ,  0.4652233 , -0.6284557 , -0.49486104,
        0.63098246,  0.70526606,  0.59232575,  1.0030388 ,  0.42031464,
        0.6511777 ,  0.4482892 ,  0.41492155,  0.5256628 ], dtype=float32)]
[array([[ 2.3456211e-01, -2.5470868e-01, -6.0322386e-01, -7.8231496e-01,
        -4.2908317e-01, -6.5975982e-01, -4.5263621e-01, -2.8002262e-04,
        -3.3606145e-01, -3.4922102e-01, -1.2008846e-02, -3.2561520e-01,
        -2.3959136e-01, -4.7806618e-01,  1.6894560e-01,  3.2765862e-01,
         2.9903179e-01, -8.6284675e-02, -2.3561956e-01, -4.8879281e-01,
        -2.8113970e-01, -9.8704457e-01, -4.4565567e-01, -6.9224828e-01],
       [-4.0575124e-02, -1.9251765e-01, -2.1941309e-01, -3.0807391e-01,
        -1.7347324e-01, -1.8398114e-01,  2.2140241e-01,  1.9327885e-01,
        -3.6475658e-02,  1.4360267e-01, -1.2280449e-01, -3.9439422e-01,
        -4.7126162e-01, -3.7161869e-01, -3.1455693e-01, -6.8108872e-02,
         4.8653123e-01,  8.3929054e-02, -2.0601200e-01, -4.2466816e-02,
        -2.9620445e-01, -1.0247352e+00, -6.2682939e-01, -1.1959511e-01],
       [-3.5639673e-01, -3.8818255e-01, -6.8895435e-01, -9.6021712e-01,
        -6.8387789e-01, -4.4754025e-01,  2.4856323e-01, -1.9726679e-01,
        -1.9539154e-01,  2.5376278e-01, -8.2063764e-02, -1.0459292e-01,
        -8.6908743e-02, -3.4456757e-01,  6.3458093e-02,  1.5959695e-01,
         6.4647391e-02,  4.5040944e-01, -8.1748015e-01, -2.1963562e-01,
        -1.2305122e-01, -1.3008225e+00, -7.1678722e-01, -4.1189328e-01],
       [-1.7689973e+00,  1.6824088e-01, -1.1948330e+00, -7.7708250e-01,
         5.2560961e-01, -5.1925653e-01,  1.8997180e-01, -2.1529043e-01,
        -1.9411436e-01, -5.4759234e-02,  1.9610542e-01,  1.7828435e-02,
         3.6493972e-01, -9.3941373e-01, -1.5688242e-01,  8.4666473e-01,
         7.1335346e-01,  1.5354338e-01, -1.5065168e+00, -1.1805012e-01,
        -1.0952855e+00, -1.2838082e-01,  2.7475858e-01, -6.6289127e-01],
       [-7.0837569e-01, -1.1473807e+00, -1.9557339e+00, -1.5219512e+00,
        -1.9923856e+00, -1.7557237e+00,  3.8103020e-01, -7.8240246e-02,
        -4.4920832e-01,  2.0434362e-01,  3.8405448e-02,  1.4240766e-01,
        -1.9870902e+00,  8.6606288e-01,  1.3401957e+00, -1.2623399e+00,
        -2.6888838e-01, -1.1114290e+00, -4.2362127e-01, -1.6194562e+00,
        -1.0818491e+00, -1.9634793e+00, -1.6269268e+00, -1.2102644e+00]],
      dtype=float32), array([[-0.00588213,  0.14649823, -0.3513546 , -0.09710251,  0.32930905,
         0.08935739,  0.11408731,  0.04138149, -0.35812944, -0.08354774,
        -0.29220927, -0.02571798,  0.11530653,  0.2171044 , -0.33545548,
        -0.17982163, -0.21202816, -0.12430549,  0.2992633 ,  0.17066197,
        -0.24578159,  0.20349057,  0.07601427, -0.03463331],
       [-0.2546001 , -0.00292103,  0.13268223,  0.12819307, -0.01270876,
        -0.16984436, -0.2591093 , -0.11044541,  0.09600603, -0.36796522,
        -0.14845285,  0.11313769,  0.1630941 , -0.28134403,  0.10675852,
         0.12464206, -0.3770094 , -0.12102625,  0.26062882, -0.23671205,
         0.03210137,  0.09998776,  0.22763774, -0.3702111 ],
       [-0.08491181,  0.00629489, -0.18972138, -0.34807673,  0.05875377,
        -0.08686434, -0.10733572,  0.26370695,  0.06414645, -0.11987358,
         0.08347394,  0.20075394, -0.36619624, -0.3631066 , -0.06783883,
        -0.38254103,  0.15264946, -0.21949747, -0.04991648, -0.35990462,
        -0.19978842,  0.01561927, -0.11645965,  0.06060079],
       [ 0.06711821, -0.25088415, -0.18519358,  0.08358692,  0.06729276,
        -0.06571887, -0.06425873, -0.01766581, -0.3093943 , -0.14231586,
         0.14999044, -0.19023669, -0.00744944, -0.16499618,  0.23915085,
         0.11271241, -0.40718928, -0.07457317, -0.24213013,  0.03197531,
         0.07287709,  0.2911086 , -0.49656975,  0.19618258],
       [ 0.41955516, -0.0531732 ,  0.13100727, -0.15593763,  0.45744467,
        -0.1169932 , -0.07222833,  0.04606037,  0.436412  , -0.24152246,
         0.04463255, -0.21460576, -0.12686989, -0.07562615, -0.10597678,
        -0.13196778, -0.21767369,  0.12411149, -0.07466733,  0.25637385,
         0.16191535, -0.0087963 ,  0.19178759,  0.07015945],
       [-0.17340098,  0.4304356 ,  0.32552266,  0.18991168, -0.05123011,
         0.27653658, -0.15248556,  0.12135126,  0.01916232,  0.062521  ,
         0.12921992, -0.13495114, -0.42043966,  0.20306267, -0.16106834,
        -0.06164443, -0.32665965,  0.03643392, -0.22578764, -0.02634484,
        -0.15883307,  0.13819692, -0.08680414, -0.16446538]],
      dtype=float32), array([ 0.98831093,  0.5036755 ,  0.5293678 ,  0.57017845,  0.4219709 ,
        0.48568666,  1.        ,  1.        ,  1.        ,  1.        ,
        1.        ,  1.        ,  0.4652233 , -0.6284557 , -0.49486104,
        0.63098246,  0.70526606,  0.59232575,  1.0030388 ,  0.42031464,
        0.6511777 ,  0.4482892 ,  0.41492155,  0.5256628 ], dtype=float32)]
[array([[ 3.0821371e+00, -1.1477965e+00,  2.3155305e+00, -1.3163127e+00,
        -4.6979737e+00,  6.3008666e-02, -4.5263621e-01, -2.8002262e-04,
        -3.3606145e-01, -3.4922102e-01, -1.2008846e-02, -3.2561520e-01,
        -2.3639290e-01, -4.6912007e+00,  1.5251553e+00,  3.2496803e+00,
         2.7637548e+01,  1.3558329e+00,  1.0500973e+00, -1.1901796e+00,
        -2.4243238e+00,  1.8574504e+00, -4.1129580e-01, -3.8469532e+00],
       [ 2.7606601e-01, -6.5087924e+00, -4.1344280e+00,  2.3536274e+00,
        -5.4058975e-01,  1.0439743e+00,  2.2140241e-01,  1.9327885e-01,
        -3.6475658e-02,  1.4360267e-01, -1.2280449e-01, -3.9439422e-01,
        -1.4060186e+00,  1.8764055e+00,  1.2604617e+00,  3.2453988e+00,
        -1.7950045e+00,  3.4553604e+00,  8.1606901e-01,  4.9867973e+00,
        -2.5165360e+00,  2.7237206e+00,  2.7425003e+00, -3.0164077e+00],
       [-2.8562977e+00, -6.7753339e+00, -3.1543121e+00, -9.8718252e+00,
        -6.4299479e+00,  5.8364224e+00,  2.4856323e-01, -1.9726679e-01,
        -1.9539154e-01,  2.5376278e-01, -8.2063764e-02, -1.0459292e-01,
        -2.2432399e-01, -6.3119884e+00, -2.8033188e-01,  2.6951196e+00,
         7.3124009e-01,  3.8349586e+00, -3.5293207e+00,  2.1735866e+00,
        -1.1529498e+01, -7.8431811e+00, -3.8409476e+00,  4.4961772e+00],
       [-1.0093758e+01,  2.3043029e+00, -1.1786318e+01,  3.7637372e+00,
         8.1040936e+00,  2.5833385e+00,  1.8997180e-01, -2.1529043e-01,
        -1.9411436e-01, -5.4759234e-02,  1.9610542e-01,  1.7828435e-02,
        -1.4397483e+00, -2.1301496e+00, -2.3481781e+00,  2.5731821e+00,
         1.9524474e+00, -3.5809703e+00, -9.5914669e+00,  5.5983715e+00,
         3.5861468e+00,  3.5217795e+00,  2.8403769e+00,  1.3403286e+00],
       [-7.6006585e-01,  3.7565849e+00, -1.4955622e+00,  1.4759746e+00,
        -1.2974559e+00, -6.0498734e+00,  3.8103020e-01, -7.8240246e-02,
        -4.4920832e-01,  2.0434362e-01,  3.8405448e-02,  1.4240766e-01,
        -5.2385759e+00,  2.2972023e+00,  7.6908059e+00, -2.4293630e+00,
        -2.7061007e+00, -4.7628946e+00,  1.9689983e+00,  3.8529541e+00,
         5.3263078e+00,  1.7052857e+00, -5.6239429e+00, -1.4052562e+00]],
      dtype=float32), array([[-0.00588213,  0.14649823, -0.3513546 , -0.09710251,  0.32930905,
         0.08935739,  0.11408731,  0.04138149, -0.35812944, -0.08354774,
        -0.29220927, -0.02571798,  0.11530653,  0.2171044 , -0.33545548,
        -0.17982163, -0.21202816, -0.12430549,  0.2992633 ,  0.17066197,
        -0.24578159,  0.20349057,  0.07601427, -0.03463331],
       [-0.2546001 , -0.00292103,  0.13268223,  0.12819307, -0.01270876,
        -0.16984436, -0.2591093 , -0.11044541,  0.09600603, -0.36796522,
        -0.14845285,  0.11313769,  0.1630941 , -0.28134403,  0.10675852,
         0.12464206, -0.3770094 , -0.12102625,  0.26062882, -0.23671205,
         0.03210137,  0.09998776,  0.22763774, -0.3702111 ],
       [-0.08491181,  0.00629489, -0.18972138, -0.34807673,  0.05875377,
        -0.08686434, -0.10733572,  0.26370695,  0.06414645, -0.11987358,
         0.08347394,  0.20075394, -0.36619624, -0.3631066 , -0.06783883,
        -0.38254103,  0.15264946, -0.21949747, -0.04991648, -0.35990462,
        -0.19978842,  0.01561927, -0.11645965,  0.06060079],
       [ 0.06711821, -0.25088415, -0.18519358,  0.08358692,  0.06729276,
        -0.06571887, -0.06425873, -0.01766581, -0.3093943 , -0.14231586,
         0.14999044, -0.19023669, -0.00744944, -0.16499618,  0.23915085,
         0.11271241, -0.40718928, -0.07457317, -0.24213013,  0.03197531,
         0.07287709,  0.2911086 , -0.49656975,  0.19618258],
       [ 0.41955516, -0.0531732 ,  0.13100727, -0.15593763,  0.45744467,
        -0.1169932 , -0.07222833,  0.04606037,  0.436412  , -0.24152246,
         0.04463255, -0.21460576, -0.12686989, -0.07562615, -0.10597678,
        -0.13196778, -0.21767369,  0.12411149, -0.07466733,  0.25637385,
         0.16191535, -0.0087963 ,  0.19178759,  0.07015945],
       [-0.17340098,  0.4304356 ,  0.32552266,  0.18991168, -0.05123011,
         0.27653658, -0.15248556,  0.12135126,  0.01916232,  0.062521  ,
         0.12921992, -0.13495114, -0.42043966,  0.20306267, -0.16106834,
        -0.06164443, -0.32665965,  0.03643392, -0.22578764, -0.02634484,
        -0.15883307,  0.13819692, -0.08680414, -0.16446538]],
      dtype=float32), array([ 0.7385113 , -2.2608283 ,  0.30473465, -1.7911649 , -1.5261925 ,
       -1.856405  ,  1.        ,  1.        ,  1.        ,  1.        ,
        1.        ,  1.        ,  1.837758  ,  0.51277256, -0.7110538 ,
        0.00840317,  0.6287874 ,  0.371833  ,  1.4622792 , -1.4079859 ,
        0.12453896, -2.0978525 ,  1.9793628 , -0.35989097], dtype=float32)]
