[array([[ 0.54254746,  1.2228365 ,  0.710911  ,  1.1958159 ,  1.0381489 ,
         1.011995  ,  0.07173175, -0.14649415,  0.08116412,  0.22921962,
         0.2919855 , -0.3485627 ,  0.44047713, -0.8947892 ,  1.0974288 ,
         0.62920386,  0.43721175,  1.1150075 ,  0.54501116,  0.45034966,
         1.0099782 ,  0.7105449 ,  0.3622754 ,  0.50040746],
       [-0.7666679 , -0.66883194, -0.7386131 , -0.32474688, -0.2420631 ,
        -0.742848  ,  0.14567393,  0.08775747, -0.35853717,  0.07056695,
         0.13712162, -0.0514302 , -0.34179148,  0.09410917, -0.72411627,
        -0.51804614, -0.33872375, -0.64132607, -0.14666805, -0.5845919 ,
        -0.3909296 , -0.6665762 , -0.4245915 , -0.6241342 ],
       [-0.40792382, -0.7533209 , -0.47473252, -0.6218375 , -0.51608473,
        -0.9591048 ,  0.30594558, -0.4301414 ,  0.3147697 , -0.42455065,
         0.2962103 , -0.16912097, -0.8193609 ,  0.960114  , -0.86822546,
        -0.21688798, -0.75993997, -0.32105488, -0.63073796, -0.56460613,
        -0.9078842 , -0.83781844, -0.503367  , -0.44930896],
       [ 0.2877537 ,  0.34537977,  0.8390548 ,  0.8975434 ,  0.7883986 ,
         0.89871055,  0.29024428, -0.25970542,  0.35210514, -0.2326788 ,
         0.02274546, -0.3347309 ,  0.57881457, -0.41491848,  0.46001375,
         0.8685316 ,  0.52283746,  0.8657182 ,  0.4155807 ,  0.5239133 ,
         0.72492355,  0.6957243 ,  0.94560045,  1.0445986 ],
       [ 0.10832097, -0.03367382,  0.8015845 ,  0.14466596,  0.13258015,
         0.35519865, -0.1865479 ,  0.27121878,  0.13016385, -0.30189762,
        -0.33365333,  0.16284102,  0.44061577, -0.43806988,  0.32626313,
         0.92919785,  0.673016  ,  0.40026638,  0.1484618 ,  0.45026234,
         0.81595546,  0.15305853,  0.13955744,  0.86643976],
       [ 0.29779148,  0.5859121 ,  0.36011672,  0.8472363 ,  0.94512635,
         0.73796153, -0.04572922, -0.14070266,  0.44195992,  0.23113382,
         0.26596564, -0.21222745,  0.7304587 , -0.47957417,  0.7189219 ,
         0.15490375,  0.32144842,  0.10683493,  0.8944574 ,  0.7624866 ,
         0.7237563 ,  0.431088  ,  0.17752583,  0.2377054 ]],
      dtype=float32), array([[-1.67138636e-01,  3.33322883e-01,  3.54778200e-01,
        -1.66777760e-01, -2.25239262e-01, -1.52075619e-01,
        -4.23187874e-02, -1.25895590e-02, -8.02795589e-02,
         1.34712949e-01, -1.86170358e-02,  6.07501924e-01,
         1.84756219e-01,  4.54525761e-02,  3.37014139e-01,
        -1.32946506e-01, -4.53376845e-02, -2.93186009e-02,
         7.47995218e-03,  1.35905519e-01, -2.05605909e-01,
         5.07363491e-02, -1.78348346e-04,  6.10573366e-02],
       [-2.15555459e-01,  9.06809717e-02,  1.78503171e-01,
        -4.56019305e-02,  4.72778499e-01,  1.38213515e-01,
         1.60965964e-01, -1.87031582e-01, -3.66615839e-02,
         1.48795441e-01, -2.37333104e-01,  1.24526195e-01,
        -1.17096733e-02, -2.60325015e-01, -3.31391066e-01,
        -2.70769745e-01,  2.07396656e-01, -1.00190386e-01,
         3.16803247e-01,  9.92547870e-02,  2.21537665e-01,
         1.48582116e-01,  1.16539616e-02,  1.64126158e-01],
       [-3.32930535e-01,  2.33171120e-01, -1.52737215e-01,
        -2.15859815e-01,  4.57602382e-01, -7.56205916e-02,
         9.55741629e-02, -3.59920003e-02, -2.16707632e-01,
        -2.27175340e-01,  1.72088847e-01, -2.30562817e-02,
        -1.35794625e-01,  1.28053501e-01,  3.22825730e-01,
         3.54701787e-01,  9.60313752e-02,  3.52473706e-02,
        -1.43209428e-01, -1.85047179e-01,  6.20769560e-02,
         2.35773206e-01, -1.45010918e-01,  6.70360541e-03],
       [-1.99499667e-01, -8.90181810e-02,  3.02262753e-01,
         3.22395682e-01,  1.28342554e-01, -2.91952640e-01,
        -3.93322892e-02,  1.27672315e-01, -1.08143897e-03,
         1.26833022e-01,  3.69404346e-01, -1.69068709e-01,
         2.34933302e-01, -8.61542597e-02, -1.47069633e-01,
         1.33625671e-01,  2.97584556e-05, -5.91709949e-02,
        -2.83703506e-01,  4.65045124e-01,  9.53078121e-02,
         5.89005575e-02, -2.02254415e-01,  2.16766708e-02],
       [-6.44798428e-02, -2.26206258e-01,  1.47372950e-03,
         1.23502448e-01, -1.67504951e-01,  6.81804121e-02,
         4.04058069e-01, -2.34087184e-02, -4.81258035e-01,
         1.60467029e-01,  1.57667547e-02, -3.32101323e-02,
        -3.34141329e-02,  3.00735652e-01, -3.76317650e-02,
         3.98379564e-02, -2.85256594e-01,  2.45039597e-01,
         1.83740452e-01,  2.67760493e-02, -1.76201500e-02,
         7.80801475e-02, -9.62937176e-02,  4.33654070e-01],
       [-9.99136120e-02,  1.49092600e-01, -4.79378313e-01,
        -1.81421023e-02, -5.46666384e-02, -4.22565818e-01,
         3.90151255e-02, -1.70004025e-01,  1.48038074e-01,
         3.78045082e-01,  3.08615938e-02,  1.29606649e-01,
        -7.24235624e-02,  3.58375236e-02, -2.81100065e-01,
         2.88043797e-01,  1.49021879e-01,  1.32878423e-01,
         1.08919926e-01,  1.34149477e-01, -1.98649257e-01,
        -8.67201947e-03,  2.52512634e-01,  3.94874103e-02]], dtype=float32), array([ 0.49925599,  0.48162073,  0.5349802 ,  0.5423262 ,  0.4932773 ,
        0.5613045 ,  1.        ,  1.        ,  1.        ,  1.        ,
        1.        ,  1.        ,  0.33921728, -0.38896587,  0.32978567,
        0.386771  ,  0.3525664 ,  0.35604385,  0.5031366 ,  0.50858366,
        0.544368  ,  0.5620645 ,  0.513876  ,  0.5843228 ], dtype=float32)]
[array([[ 0.54254746,  1.2228365 ,  0.710911  ,  1.1958159 ,  1.0381489 ,
         1.011995  ,  0.07173175, -0.14649415,  0.08116412,  0.22921962,
         0.2919855 , -0.3485627 ,  0.44047713, -0.8947892 ,  1.0974288 ,
         0.62920386,  0.43721175,  1.1150075 ,  0.54501116,  0.45034966,
         1.0099782 ,  0.7105449 ,  0.3622754 ,  0.50040746],
       [-0.7666679 , -0.66883194, -0.7386131 , -0.32474688, -0.2420631 ,
        -0.742848  ,  0.14567393,  0.08775747, -0.35853717,  0.07056695,
         0.13712162, -0.0514302 , -0.34179148,  0.09410917, -0.72411627,
        -0.51804614, -0.33872375, -0.64132607, -0.14666805, -0.5845919 ,
        -0.3909296 , -0.6665762 , -0.4245915 , -0.6241342 ],
       [-0.40792382, -0.7533209 , -0.47473252, -0.6218375 , -0.51608473,
        -0.9591048 ,  0.30594558, -0.4301414 ,  0.3147697 , -0.42455065,
         0.2962103 , -0.16912097, -0.8193609 ,  0.960114  , -0.86822546,
        -0.21688798, -0.75993997, -0.32105488, -0.63073796, -0.56460613,
        -0.9078842 , -0.83781844, -0.503367  , -0.44930896],
       [ 0.2877537 ,  0.34537977,  0.8390548 ,  0.8975434 ,  0.7883986 ,
         0.89871055,  0.29024428, -0.25970542,  0.35210514, -0.2326788 ,
         0.02274546, -0.3347309 ,  0.57881457, -0.41491848,  0.46001375,
         0.8685316 ,  0.52283746,  0.8657182 ,  0.4155807 ,  0.5239133 ,
         0.72492355,  0.6957243 ,  0.94560045,  1.0445986 ],
       [ 0.10832097, -0.03367382,  0.8015845 ,  0.14466596,  0.13258015,
         0.35519865, -0.1865479 ,  0.27121878,  0.13016385, -0.30189762,
        -0.33365333,  0.16284102,  0.44061577, -0.43806988,  0.32626313,
         0.92919785,  0.673016  ,  0.40026638,  0.1484618 ,  0.45026234,
         0.81595546,  0.15305853,  0.13955744,  0.86643976],
       [ 0.29779148,  0.5859121 ,  0.36011672,  0.8472363 ,  0.94512635,
         0.73796153, -0.04572922, -0.14070266,  0.44195992,  0.23113382,
         0.26596564, -0.21222745,  0.7304587 , -0.47957417,  0.7189219 ,
         0.15490375,  0.32144842,  0.10683493,  0.8944574 ,  0.7624866 ,
         0.7237563 ,  0.431088  ,  0.17752583,  0.2377054 ]],
      dtype=float32), array([[-1.67138636e-01,  3.33322883e-01,  3.54778200e-01,
        -1.66777760e-01, -2.25239262e-01, -1.52075619e-01,
        -4.23187874e-02, -1.25895590e-02, -8.02795589e-02,
         1.34712949e-01, -1.86170358e-02,  6.07501924e-01,
         1.84756219e-01,  4.54525761e-02,  3.37014139e-01,
        -1.32946506e-01, -4.53376845e-02, -2.93186009e-02,
         7.47995218e-03,  1.35905519e-01, -2.05605909e-01,
         5.07363491e-02, -1.78348346e-04,  6.10573366e-02],
       [-2.15555459e-01,  9.06809717e-02,  1.78503171e-01,
        -4.56019305e-02,  4.72778499e-01,  1.38213515e-01,
         1.60965964e-01, -1.87031582e-01, -3.66615839e-02,
         1.48795441e-01, -2.37333104e-01,  1.24526195e-01,
        -1.17096733e-02, -2.60325015e-01, -3.31391066e-01,
        -2.70769745e-01,  2.07396656e-01, -1.00190386e-01,
         3.16803247e-01,  9.92547870e-02,  2.21537665e-01,
         1.48582116e-01,  1.16539616e-02,  1.64126158e-01],
       [-3.32930535e-01,  2.33171120e-01, -1.52737215e-01,
        -2.15859815e-01,  4.57602382e-01, -7.56205916e-02,
         9.55741629e-02, -3.59920003e-02, -2.16707632e-01,
        -2.27175340e-01,  1.72088847e-01, -2.30562817e-02,
        -1.35794625e-01,  1.28053501e-01,  3.22825730e-01,
         3.54701787e-01,  9.60313752e-02,  3.52473706e-02,
        -1.43209428e-01, -1.85047179e-01,  6.20769560e-02,
         2.35773206e-01, -1.45010918e-01,  6.70360541e-03],
       [-1.99499667e-01, -8.90181810e-02,  3.02262753e-01,
         3.22395682e-01,  1.28342554e-01, -2.91952640e-01,
        -3.93322892e-02,  1.27672315e-01, -1.08143897e-03,
         1.26833022e-01,  3.69404346e-01, -1.69068709e-01,
         2.34933302e-01, -8.61542597e-02, -1.47069633e-01,
         1.33625671e-01,  2.97584556e-05, -5.91709949e-02,
        -2.83703506e-01,  4.65045124e-01,  9.53078121e-02,
         5.89005575e-02, -2.02254415e-01,  2.16766708e-02],
       [-6.44798428e-02, -2.26206258e-01,  1.47372950e-03,
         1.23502448e-01, -1.67504951e-01,  6.81804121e-02,
         4.04058069e-01, -2.34087184e-02, -4.81258035e-01,
         1.60467029e-01,  1.57667547e-02, -3.32101323e-02,
        -3.34141329e-02,  3.00735652e-01, -3.76317650e-02,
         3.98379564e-02, -2.85256594e-01,  2.45039597e-01,
         1.83740452e-01,  2.67760493e-02, -1.76201500e-02,
         7.80801475e-02, -9.62937176e-02,  4.33654070e-01],
       [-9.99136120e-02,  1.49092600e-01, -4.79378313e-01,
        -1.81421023e-02, -5.46666384e-02, -4.22565818e-01,
         3.90151255e-02, -1.70004025e-01,  1.48038074e-01,
         3.78045082e-01,  3.08615938e-02,  1.29606649e-01,
        -7.24235624e-02,  3.58375236e-02, -2.81100065e-01,
         2.88043797e-01,  1.49021879e-01,  1.32878423e-01,
         1.08919926e-01,  1.34149477e-01, -1.98649257e-01,
        -8.67201947e-03,  2.52512634e-01,  3.94874103e-02]], dtype=float32), array([ 0.49925599,  0.48162073,  0.5349802 ,  0.5423262 ,  0.4932773 ,
        0.5613045 ,  1.        ,  1.        ,  1.        ,  1.        ,
        1.        ,  1.        ,  0.33921728, -0.38896587,  0.32978567,
        0.386771  ,  0.3525664 ,  0.35604385,  0.5031366 ,  0.50858366,
        0.544368  ,  0.5620645 ,  0.513876  ,  0.5843228 ], dtype=float32)]
[array([[-1.8698984 , -3.437039  ,  2.2016659 , -1.1819291 , -1.3973641 ,
        -0.7929193 ,  0.07173175, -0.14649415,  0.08116412,  0.22921962,
         0.2919855 , -0.3485627 ,  4.65082   , -0.27383843,  4.8169103 ,
         0.50752497, -0.6493789 ,  1.2632362 , -1.5363382 , -4.3066454 ,
         2.9052315 , -1.5696039 , -1.8971121 , -0.9258821 ],
       [-1.1802871 ,  1.2953545 ,  1.4738197 ,  4.294984  ,  2.737508  ,
         2.0836735 ,  0.14567393,  0.08775747, -0.35853717,  0.07056695,
         0.13712162, -0.0514302 , -5.7283196 ,  2.2180204 , -0.952952  ,
        -7.1410728 , -8.030205  , -4.9491043 ,  3.6354702 ,  0.31328568,
         4.7321477 ,  1.9963179 , -2.0715292 ,  0.29475763],
       [-1.2321317 , -2.335497  , -1.5814506 , -9.608902  , -4.643684  ,
        -3.77773   ,  0.30594558, -0.4301414 ,  0.3147697 , -0.42455065,
         0.2962103 , -0.16912097, -3.3042462 ,  2.6668696 ,  1.2312578 ,
         5.737596  , -2.1838098 ,  4.1162777 , -2.5746784 , -1.6050392 ,
        -3.1864953 , -9.939103  , -7.5110464 , -2.8989823 ],
       [ 2.2881334 , -2.4291286 ,  2.0453246 ,  0.10755242, -1.3722432 ,
        -0.17218368,  0.29024428, -0.25970542,  0.35210514, -0.2326788 ,
         0.02274546, -0.3347309 ,  3.6681123 , -5.8630404 ,  0.20380503,
         0.57529217,  2.4040518 , -2.458359  , -1.6026276 , -0.42824233,
        -1.2948246 , -0.34319395,  2.1426737 , -0.23418427],
       [ 0.584104  , -3.1023307 ,  0.4670667 , -1.6984931 , -2.0554447 ,
        -2.3394372 , -0.1865479 ,  0.27121878,  0.13016385, -0.30189762,
        -0.33365333,  0.16284102,  3.655336  , -4.8153024 , 10.769961  ,
        14.416571  ,  2.6616964 ,  8.599202  , -2.5045059 ,  6.8280463 ,
        -2.0526245 , -1.424469  , -1.6889303 , -1.665612  ],
       [-0.6746182 , -0.72468066,  1.4373057 ,  2.0075119 ,  1.8178711 ,
         2.2334282 , -0.04572922, -0.14070266,  0.44195992,  0.23113382,
         0.26596564, -0.21222745,  5.327217  , -2.887939  ,  5.006767  ,
        -1.6510879 ,  3.1484046 , -1.6848106 ,  1.2678095 , -6.621024  ,
         2.090767  ,  2.2894382 , -1.3806089 ,  1.6050229 ]],
      dtype=float32), array([[-1.67138636e-01,  3.33322883e-01,  3.54778200e-01,
        -1.66777760e-01, -2.25239262e-01, -1.52075619e-01,
        -4.23187874e-02, -1.25895590e-02, -8.02795589e-02,
         1.34712949e-01, -1.86170358e-02,  6.07501924e-01,
         1.84756219e-01,  4.54525761e-02,  3.37014139e-01,
        -1.32946506e-01, -4.53376845e-02, -2.93186009e-02,
         7.47995218e-03,  1.35905519e-01, -2.05605909e-01,
         5.07363491e-02, -1.78348346e-04,  6.10573366e-02],
       [-2.15555459e-01,  9.06809717e-02,  1.78503171e-01,
        -4.56019305e-02,  4.72778499e-01,  1.38213515e-01,
         1.60965964e-01, -1.87031582e-01, -3.66615839e-02,
         1.48795441e-01, -2.37333104e-01,  1.24526195e-01,
        -1.17096733e-02, -2.60325015e-01, -3.31391066e-01,
        -2.70769745e-01,  2.07396656e-01, -1.00190386e-01,
         3.16803247e-01,  9.92547870e-02,  2.21537665e-01,
         1.48582116e-01,  1.16539616e-02,  1.64126158e-01],
       [-3.32930535e-01,  2.33171120e-01, -1.52737215e-01,
        -2.15859815e-01,  4.57602382e-01, -7.56205916e-02,
         9.55741629e-02, -3.59920003e-02, -2.16707632e-01,
        -2.27175340e-01,  1.72088847e-01, -2.30562817e-02,
        -1.35794625e-01,  1.28053501e-01,  3.22825730e-01,
         3.54701787e-01,  9.60313752e-02,  3.52473706e-02,
        -1.43209428e-01, -1.85047179e-01,  6.20769560e-02,
         2.35773206e-01, -1.45010918e-01,  6.70360541e-03],
       [-1.99499667e-01, -8.90181810e-02,  3.02262753e-01,
         3.22395682e-01,  1.28342554e-01, -2.91952640e-01,
        -3.93322892e-02,  1.27672315e-01, -1.08143897e-03,
         1.26833022e-01,  3.69404346e-01, -1.69068709e-01,
         2.34933302e-01, -8.61542597e-02, -1.47069633e-01,
         1.33625671e-01,  2.97584556e-05, -5.91709949e-02,
        -2.83703506e-01,  4.65045124e-01,  9.53078121e-02,
         5.89005575e-02, -2.02254415e-01,  2.16766708e-02],
       [-6.44798428e-02, -2.26206258e-01,  1.47372950e-03,
         1.23502448e-01, -1.67504951e-01,  6.81804121e-02,
         4.04058069e-01, -2.34087184e-02, -4.81258035e-01,
         1.60467029e-01,  1.57667547e-02, -3.32101323e-02,
        -3.34141329e-02,  3.00735652e-01, -3.76317650e-02,
         3.98379564e-02, -2.85256594e-01,  2.45039597e-01,
         1.83740452e-01,  2.67760493e-02, -1.76201500e-02,
         7.80801475e-02, -9.62937176e-02,  4.33654070e-01],
       [-9.99136120e-02,  1.49092600e-01, -4.79378313e-01,
        -1.81421023e-02, -5.46666384e-02, -4.22565818e-01,
         3.90151255e-02, -1.70004025e-01,  1.48038074e-01,
         3.78045082e-01,  3.08615938e-02,  1.29606649e-01,
        -7.24235624e-02,  3.58375236e-02, -2.81100065e-01,
         2.88043797e-01,  1.49021879e-01,  1.32878423e-01,
         1.08919926e-01,  1.34149477e-01, -1.98649257e-01,
        -8.67201947e-03,  2.52512634e-01,  3.94874103e-02]], dtype=float32), array([ 0.6055709 , -0.48469222,  0.81982213, -0.05560886, -0.58347136,
       -2.1221075 ,  1.        ,  1.        ,  1.        ,  1.        ,
        1.        ,  1.        , -0.50192523,  0.519281  ,  1.6082095 ,
        0.4281903 , -0.5633381 ,  0.34636578,  0.04367656, -1.215779  ,
       -0.08884829, -0.24035391, -1.5262141 , -2.3876832 ], dtype=float32)]
